digraph Tree {
node [shape=box, style="filled, rounded", color="black", fontname=helvetica] ;
edge [fontname=helvetica] ;
0 [label="the <= 0.5\ngini = 0.479\nsamples = 2287\nvalue = [909, 1378]\nclass = real", fillcolor="#399de557"] ;
1 [label="hillary <= 0.5\ngini = 0.448\nsamples = 1922\nvalue = [652, 1270]\nclass = real", fillcolor="#399de57c"] ;
0 -> 1 [labeldistance=2.5, labelangle=45, headlabel="True"] ;
2 [label="donald <= 0.5\ngini = 0.426\nsamples = 1805\nvalue = [555, 1250]\nclass = real", fillcolor="#399de58e"] ;
1 -> 2 ;
3 [label="(...)", fillcolor="#C0C0C0"] ;
2 -> 3 ;
452 [label="(...)", fillcolor="#C0C0C0"] ;
2 -> 452 ;
585 [label="donald <= 0.5\ngini = 0.283\nsamples = 117\nvalue = [97, 20]\nclass = fake", fillcolor="#e58139ca"] ;
1 -> 585 ;
586 [label="(...)", fillcolor="#C0C0C0"] ;
585 -> 586 ;
599 [label="(...)", fillcolor="#C0C0C0"] ;
585 -> 599 ;
620 [label="trumps <= 0.5\ngini = 0.417\nsamples = 365\nvalue = [257, 108]\nclass = fake", fillcolor="#e5813994"] ;
0 -> 620 [labeldistance=2.5, labelangle=-45, headlabel="False"] ;
621 [label="donald <= 0.5\ngini = 0.397\nsamples = 352\nvalue = [256, 96]\nclass = fake", fillcolor="#e581399f"] ;
620 -> 621 ;
622 [label="(...)", fillcolor="#C0C0C0"] ;
621 -> 622 ;
725 [label="(...)", fillcolor="#C0C0C0"] ;
621 -> 725 ;
770 [label="clean <= 0.5\ngini = 0.142\nsamples = 13\nvalue = [1, 12]\nclass = real", fillcolor="#399de5ea"] ;
620 -> 770 ;
771 [label="(...)", fillcolor="#C0C0C0"] ;
770 -> 771 ;
772 [label="(...)", fillcolor="#C0C0C0"] ;
770 -> 772 ;
}