digraph Tree {
node [shape=box, style="filled, rounded", color="black", fontname=helvetica] ;
edge [fontname=helvetica] ;
0 [label="X[66] <= 0.5\ngini = 0.479\nsamples = 2287\nvalue = [909, 1378]\nclass = real", fillcolor="#399de557"] ;
1 [label="X[1] <= 0.5\ngini = 0.448\nsamples = 1922\nvalue = [652, 1270]\nclass = real", fillcolor="#399de57c"] ;
0 -> 1 [labeldistance=2.5, labelangle=45, headlabel="True"] ;
2 [label="X[23] <= 0.5\ngini = 0.426\nsamples = 1805\nvalue = [555, 1250]\nclass = real", fillcolor="#399de58e"] ;
1 -> 2 ;
3 [label="(...)", fillcolor="#C0C0C0"] ;
2 -> 3 ;
444 [label="(...)", fillcolor="#C0C0C0"] ;
2 -> 444 ;
577 [label="X[23] <= 0.5\ngini = 0.283\nsamples = 117\nvalue = [97, 20]\nclass = fake", fillcolor="#e58139ca"] ;
1 -> 577 ;
578 [label="(...)", fillcolor="#C0C0C0"] ;
577 -> 578 ;
591 [label="(...)", fillcolor="#C0C0C0"] ;
577 -> 591 ;
612 [label="X[149] <= 0.5\ngini = 0.417\nsamples = 365\nvalue = [257, 108]\nclass = fake", fillcolor="#e5813994"] ;
0 -> 612 [labeldistance=2.5, labelangle=-45, headlabel="False"] ;
613 [label="X[23] <= 0.5\ngini = 0.397\nsamples = 352\nvalue = [256, 96]\nclass = fake", fillcolor="#e581399f"] ;
612 -> 613 ;
614 [label="(...)", fillcolor="#C0C0C0"] ;
613 -> 614 ;
717 [label="(...)", fillcolor="#C0C0C0"] ;
613 -> 717 ;
762 [label="X[147] <= 0.5\ngini = 0.142\nsamples = 13\nvalue = [1, 12]\nclass = real", fillcolor="#399de5ea"] ;
612 -> 762 ;
763 [label="(...)", fillcolor="#C0C0C0"] ;
762 -> 763 ;
764 [label="(...)", fillcolor="#C0C0C0"] ;
762 -> 764 ;
}